%YAML:1.0
my_svm: !!opencv-ml-svm
   svm_type: C_SVC
   kernel: { type:RBF, gamma:4.3300000000000001e+00 }
   C: 5.8099999999999996e+00
   term_criteria: { epsilon:1.1920928955078125e-07, iterations:1000 }
   var_all: 4
   var_count: 4
   class_count: 2
   class_labels: !!opencv-matrix
      rows: 1
      cols: 2
      dt: i
      data: [ 0, 2 ]
   sv_total: 70
   support_vectors:
      - [ 5.91449082e-01, 7.94770896e-01, 6.92531392e-02, 4.55312157e+00 ]
      - [ 9.79933619e-01, 7.08231926e-02, 1.19630648e-02, 3.39729080e+01 ]
      - [ 1., 0., 0., 0. ]
      - [ 4.12851125e-01, 1.26910555e+00, 1.40776455e-01, 2.46341014e+00 ]
      - [ 9.91960764e-01, 3.18717957e-02, 3.41801858e-03, 1.13535103e+02 ]
      - [ 6.05263174e-01, 7.38720119e-01, 4.40261215e-02, 4.62288666e+00 ]
      - [ 7.99160242e-01, 5.23541868e-01, 5.18059395e-02, 8.38884068e+00 ]
      - [ 7.00530410e-01, 6.59263909e-01, 7.58596063e-02, 5.75515699e+00 ]
      - [ 9.93282378e-01, 2.56170109e-02, 2.90786661e-03, 1.23197487e+02 ]
      - [ 9.08614278e-01, 2.41378710e-01, 2.90276501e-02, 1.71206703e+01 ]
      - [ 9.15947080e-01, 2.42572486e-01, 1.86715648e-02, 1.50948267e+01 ]
      - [ 9.83048856e-01, 6.62444159e-02, 2.55076010e-02, 1.49713144e+01 ]
      - [ 3.39629769e-01, 1.36178756e+00, 1.16773799e-01, 2.06035972e+00 ]
      - [ 3.84599954e-01, 1.26537132e+00, 1.00270383e-01, 1.78469884e+00 ]
      - [ 9.98929143e-01, 4.93963202e-03, 5.35659608e-04,
          -1.00053585e+00 ]
      - [ 5.13541341e-01, 8.53940547e-01, 6.51464164e-02, 3.97120619e+00 ]
      - [ 7.72616088e-01, 5.01456082e-01, 5.84889315e-02, 7.66531467e+00 ]
      - [ 3.65315139e-01, 1.31287217e+00, 1.27206415e-01, 2.26345944e+00 ]
      - [ 7.88813770e-01, 4.92559165e-01, 3.97663489e-02, 8.72753334e+00 ]
      - [ 8.48992765e-01, 3.83500516e-01, 4.46383022e-02, 1.07869787e+01 ]
      - [ 9.94653165e-01, 2.13855151e-02, 1.68350164e-03, 2.95020142e+02 ]
      - [ 7.38826513e-01, 5.66437244e-01, 7.75686130e-02, 6.22581625e+00 ]
      - [ 9.57624376e-01, 1.23455860e-01, 8.18794034e-03, 4.44289818e+01 ]
      - [ 9.85586464e-01, 4.96507697e-02, 6.52994588e-03, 4.44596329e+01 ]
      - [ 9.85624075e-01, 5.68283685e-02, 8.36649351e-03, 5.75926170e+01 ]
      - [ 9.02364433e-01, 2.68624097e-01, 1.97938979e-02, 1.42514648e+01 ]
      - [ 9.91403997e-01, 3.22389826e-02, 3.46903387e-03, 1.26922852e+02 ]
      - [ 6.97758734e-01, 7.24163413e-01, 5.97898178e-02, 2.85721111e+00 ]
      - [ 2.91779727e-01, 1.57337868e+00, 1.52382404e-01, 1.56636274e+00 ]
      - [ 7.89076924e-01, 5.35430193e-01, 9.68013480e-02, 5.09882498e+00 ]
      - [ 5.01413047e-01, 9.12733734e-01, 8.77206400e-02, 3.74222922e+00 ]
      - [ 3.61552447e-01, 1.29754853e+00, 1.04351595e-01, 2.22060084e+00 ]
      - [ 5.28833747e-01, 1.01829803e+00, 8.00938681e-02, 3.39660120e+00 ]
      - [ 9.91503358e-01, 3.39217335e-02, 3.82614019e-03, 7.86448822e+01 ]
      - [ 9.87152755e-01, 4.48665135e-02, 5.91776334e-03, 4.29762077e+01 ]
      - [ 9.98929083e-01, 5.07805170e-03, 4.59136820e-04, 8.16249634e+02 ]
      - [ 9.62487996e-01, 1.41639426e-01, 3.49964276e-02, 1.11317959e+01 ]
      - [ 4.04675603e-01, 1.34737194e+00, 1.07667588e-01, 1.78182352e+00 ]
      - [ 3.76539975e-01, 1.30593514e+00, 1.31236613e-01, 2.32419229e+00 ]
      - [ 7.65885949e-01, 5.96074939e-01, 6.38965443e-02, 6.95256329e+00 ]
      - [ 9.98062730e-01, 8.70458689e-03, 7.39720417e-04, 6.35774536e+02 ]
      - [ 9.09592211e-01, 2.35931396e-01, 2.19620448e-02, 1.97623425e+01 ]
      - [ 6.97649062e-01, 6.49669111e-01, 1.33302718e-01, 3.10604548e+00 ]
      - [ 8.07629049e-01, 5.02967358e-01, 5.30047938e-02, 8.60070801e+00 ]
      - [ 3.30333024e-01, 1.35746944e+00, 1.74676061e-01, 2.17112041e+00 ]
      - [ 2.72467822e-01, 1.68685889e+00, 2.18651161e-01, 1.47816515e+00 ]
      - [ 3.29232663e-01, 1.51287758e+00, 1.69651061e-01, 1.31084514e+00 ]
      - [ 3.63146186e-01, 1.33085620e+00, 1.89062342e-01, 2.28172374e+00 ]
      - [ 7.43449032e-01, 5.91944039e-01, 8.55269879e-02, 5.80961370e+00 ]
      - [ 9.92010415e-01, 3.23612615e-02, 3.31598823e-03, 1.24965401e+02 ]
      - [ 3.63699108e-01, 1.31958961e+00, 1.57790020e-01, 2.02617908e+00 ]
      - [ 1.65544823e-01, 2.15199113e+00, 5.66753387e-01, 7.25809336e-01 ]
      - [ 4.37561542e-01, 1.00361872e+00, 9.79746953e-02, 3.28275394e+00 ]
      - [ 4.36468452e-01, 1.21827245e+00, 1.50953978e-01, 2.10992217e+00 ]
      - [ 6.69358730e-01, 7.25220919e-01, 1.15039282e-01, 4.26450777e+00 ]
      - [ 5.55263877e-01, 9.12514269e-01, 1.18686870e-01, 3.51204324e+00 ]
      - [ 2.58098215e-01, 1.86252499e+00, 6.21722281e-01, 6.16577923e-01 ]
      - [ 3.02368701e-01, 1.47373974e+00, 2.17783898e-01, 1.78277802e+00 ]
      - [ 2.97432542e-01, 1.81160319e+00, 6.16136134e-01, 7.06167459e-01 ]
      - [ 6.70766890e-01, 7.57632613e-01, 9.55004618e-02, 4.02177858e+00 ]
      - [ 7.28617132e-01, 6.83999181e-01, 9.27456394e-02, 5.34639168e+00 ]
      - [ 3.36315602e-01, 1.33066595e+00, 2.11126417e-01, 2.19946337e+00 ]
      - [ 9.53795195e-01, 1.33839592e-01, 2.06356496e-02, 1.58628244e+01 ]
      - [ 5.82663774e-01, 8.78189802e-01, 9.36384052e-02, 3.56770968e+00 ]
      - [ 4.20560896e-01, 1.16665387e+00, 7.45077059e-02, 2.57742858e+00 ]
      - [ 1.11444511e-01, 2.43257284e+00, 9.08019602e-01, 5.46292424e-01 ]
      - [ 7.34247327e-01, 6.30694211e-01, 9.22865048e-02, 5.04480934e+00 ]
      - [ 4.34765816e-01, 1.28892159e+00, 1.50163248e-01, 1.69528449e+00 ]
      - [ 4.65971589e-01, 1.23243940e+00, 1.66411594e-01, 2.46664762e+00 ]
      - [ 9.91097510e-01, 3.51068936e-02, 4.15773923e-03, 5.48990593e+01 ]
   decision_functions:
      -
         sv_count: 70
         rho: -4.5799388750202147e-01
         alpha: [ 3.4441826953074637e+00, 5.4200616723006712e-01,
             5.3499477178721055e-01, 5.8099999999999996e+00,
             5.4200612575080820e-01, 4.8850654900971169e-01,
             2.6580251383454123e+00, 5.8099999999999996e+00,
             5.4200799123056509e-01, 5.4350429136452072e-01,
             5.3783930652471923e-01, 1.1367593742080728e-01,
             5.8099999999999996e+00, 5.8099999999999996e+00,
             5.3499476185948203e-01, 2.7845831734943958e+00,
             3.2354218213158975e-01, 5.8099999999999996e+00,
             4.3347235805931437e+00, 3.7677481616789699e-01,
             5.4200607195158446e-01, 1.1762672106239729e+00,
             2.7491172337706782e-01, 2.7546036220342995e-01,
             5.4200633937911324e-01, 5.0757614768406778e-01,
             5.4200624110346540e-01, 4.2486335097944679e+00,
             5.8099999999999996e+00, 5.8099999999999996e+00,
             5.8099999999999996e+00, 5.8099999999999996e+00,
             5.8099999999999996e+00, 5.4200626897645576e-01,
             5.4195735913641296e-01, 5.4200596786912025e-01,
             3.7677471255692951e-01, 5.8099999999999996e+00,
             5.8099999999999996e+00, 3.9763726556182072e-01,
             5.4200615033671462e-01, 5.4200638537392587e-01,
             -2.9871923826386300e+00, -5.8099999999999996e+00,
             -5.8099999999999996e+00, -2.9735853453872778e+00,
             -2.1027052068523746e+00, -5.8099999999999996e+00,
             -5.8099999999999996e+00, -1.4579948285256066e+00,
             -5.8099999999999996e+00, -3.7163705142114567e-01,
             -2.8289414538239099e+00, -5.8099999999999996e+00,
             -4.0861646834355918e+00, -3.0275962558139096e+00,
             -4.1191157459661920e-01, -5.6879220655483849e+00,
             -5.7107917375846062e-01, -2.5329256695740168e+00,
             -2.4184033159942508e+00, -1.6233759431173336e+00,
             -1.5015943214364003e+00, -5.8099999999999996e+00,
             -5.8099999999999996e+00, -1.1996655223043193e+00,
             -5.8099999999999996e+00, -5.8099999999999996e+00,
             -4.2739403378186465e+00, -1.4579940720994682e+00 ]
         index: [ 0, 1, 2, 3, 4, 5, 6, 7, 8, 9, 10, 11, 12, 13, 14, 15,
             16, 17, 18, 19, 20, 21, 22, 23, 24, 25, 26, 27, 28, 29, 30,
             31, 32, 33, 34, 35, 36, 37, 38, 39, 40, 41, 42, 43, 44, 45,
             46, 47, 48, 49, 50, 51, 52, 53, 54, 55, 56, 57, 58, 59, 60,
             61, 62, 63, 64, 65, 66, 67, 68, 69 ]
