%YAML:1.0
my_svm: !!opencv-ml-svm
   svm_type: C_SVC
   kernel: { type:LINEAR }
   C: 50.
   term_criteria: { epsilon:1.1920928955078125e-07, iterations:1000 }
   var_all: 105
   var_count: 105
   class_count: 2
   class_labels: !!opencv-matrix
      rows: 1
      cols: 2
      dt: i
      data: [ 0, 2 ]
   sv_total: 1
   support_vectors:
      - [ 2.89138057e-03, 4.27974155e-03, 6.93311496e-03, 8.68506636e-03,
          9.52145178e-03, 8.01084563e-03, 6.97589200e-03, 4.30287747e-03,
          3.48524447e-03, 4.72137472e-04, -2.38984940e-03,
          -3.71573842e-03, -4.48814314e-03, -6.53975317e-03,
          -1.12466766e-02, -1.57023072e-02, -1.31339235e-02,
          -1.70459016e-03, 1.23643326e-02, 2.26112036e-03,
          2.46013957e-03, 4.38917254e-04, 1.68984868e-02, 1.88005660e-02,
          0., -9.85822990e-04, 2.92582484e-03, -3.96655174e-03,
          3.54874704e-04, 1.56740600e-04, 4.26520564e-04, 4.26520564e-04,
          0., 0., 0., 0., 0., 0., 0., 0., 0., 1.83194841e-03,
          -5.59620466e-03, 4.38917254e-04, 4.48813988e-03,
          -2.27104727e-04, -1.61920190e-02, 2.07538670e-03,
          -8.50035634e-04, 1.21889217e-03, 1.21889217e-03,
          2.71499855e-03, 2.69712810e-03, 2.69712810e-03, 2.69712810e-03,
          1.20102172e-03, 0., 0., 0., 0., 0., 0., 0., 0., 0., 0., 0., 0.,
          0., 0., 0., 0., 0., 0., 0., 0., 0., 0., 0., 0., 0., 0., 0., 0.,
          0., 0., 0., 0., 0., 0., 0., 0., 0., 0., 0., 0., 0., 0., 0., 0.,
          0., 0., 0., 0., 0. ]
   decision_functions:
      -
         sv_count: 1
         rho: 1.2367840755036753e-01
         alpha: [ 1. ]
         index: [ 0 ]
