%YAML:1.0
my_svm: !!opencv-ml-svm
   svm_type: C_SVC
   kernel: { type:RBF, gamma:8.3800000000000008e+00 }
   C: 3.0200000000000000e+00
   term_criteria: { epsilon:1.1920928955078125e-07, iterations:1000 }
   var_all: 5
   var_count: 5
   class_count: 2
   class_labels: !!opencv-matrix
      rows: 1
      cols: 2
      dt: i
      data: [ 0, 2 ]
   sv_total: 159
   support_vectors:
      - [ 8.64676774e-01, 5.56522191e-01, 8.28164697e-01, 1.22352034e-01,
          9.33928907e-01 ]
      - [ 9.99983311e-01, 1.17664764e-04, 2.08942311e-05,
          -3.60002697e-01, 9.99993742e-01 ]
      - [ 3.46255392e-01, 2.26369095e+00, 1.54125917e+00, 4.83382009e-02,
          5.99000990e-01 ]
      - [ 6.94081545e-01, 9.74493861e-01, 9.51563776e-01, 2.28916988e-01,
          8.42558801e-01 ]
      - [ 6.55645311e-01, 1.10984135e+00, 1.09673262e+00, 4.37693857e-02,
          8.12774360e-01 ]
      - [ 6.63637996e-01, 1.04355717e+00, 2.44456708e-01, 2.59172738e-01,
          8.13324511e-01 ]
      - [ 8.37700427e-01, 6.61226928e-01, 1.44624233e+00, 9.82168913e-02,
          9.21257496e-01 ]
      - [ 6.84115112e-01, 1.15842128e+00, 4.49060887e-01, 5.85833378e-02,
          8.28446031e-01 ]
      - [ 3.59529793e-01, 2.19156361e+00, 1.44857383e+00, 3.05968877e-02,
          5.95847607e-01 ]
      - [ 7.75988698e-01, 7.88474739e-01, 1.00189245e+00, 1.95732221e-01,
          8.94340754e-01 ]
      - [ 5.61600327e-01, 1.51697993e+00, 8.29406023e-01, 7.06331432e-02,
          7.51134217e-01 ]
      - [ 9.96852517e-01, 1.72356348e-02, 6.27214313e-02, 6.03367186e+00,
          9.99058545e-01 ]
      - [ 8.08176100e-01, 7.67654002e-01, 1.59493196e+00, 1.74751788e-01,
          9.14283931e-01 ]
      - [ 5.85044086e-01, 1.61593282e+00, 6.90115166e+00, 4.23759632e-02,
          8.02192569e-01 ]
      - [ 9.98367190e-01, 8.40850919e-03, 8.68714042e-03, 2.98100090e+01,
          9.99293029e-01 ]
      - [ 9.84843194e-01, 7.58919865e-02, 6.10133231e-01, 8.17075074e-01,
          9.94699061e-01 ]
      - [ 9.99399185e-01, 3.16085154e-03, 1.25753123e-03, 2.96199768e+02,
          9.99825597e-01 ]
      - [ 3.67043734e-01, 2.24751735e+00, 1.87122035e+00, 3.53075117e-02,
          6.18785203e-01 ]
      - [ 7.59247780e-01, 8.13312232e-01, 5.23929417e-01, 4.02371168e-01,
          8.58292937e-01 ]
      - [ 9.62108791e-01, 1.72930822e-01, 2.22977489e-01, 4.37477261e-01,
          9.81301188e-01 ]
      - [ 5.48343539e-01, 1.33405709e+00, 2.74340242e-01, 3.25357854e-01,
          7.29762197e-01 ]
      - [ 3.77908915e-01, 2.45412779e+00, 6.04950333e+00, 4.43621092e-02,
          6.52700543e-01 ]
      - [ 4.41042304e-01, 1.87346959e+00, 6.93897426e-01, 6.44904003e-02,
          6.64978206e-01 ]
      - [ 4.03924942e-01, 1.64483857e+00, 1.75265938e-01, 1.09369710e-01,
          6.20861709e-01 ]
      - [ 9.99703288e-01, 1.83501700e-03, 5.87553950e-03, 3.57316666e+01,
          9.99921679e-01 ]
      - [ 4.31076020e-01, 2.25655150e+00, 7.38205433e+00, 5.04390895e-02,
          6.98865891e-01 ]
      - [ 3.02835137e-01, 2.22159123e+00, 2.24434710e+00, 2.23108530e-02,
          4.81466800e-01 ]
      - [ 9.57224071e-01, 1.51950493e-01, 9.61025834e-01, 2.27724314e-01,
          9.79107440e-01 ]
      - [ 5.99142313e-01, 1.60731852e+00, 2.50394058e+00, 4.99470979e-02,
          7.86889911e-01 ]
      - [ 9.85286176e-01, 7.06433505e-02, 6.85825586e-01, 6.73299193e-01,
          9.94479179e-01 ]
      - [ 5.87555528e-01, 1.52645469e+00, 3.10382247e+00, 3.61575373e-02,
          7.79847145e-01 ]
      - [ 6.05433285e-01, 1.36197114e+00, 3.68021190e-01, 9.08338502e-02,
          7.77237833e-01 ]
      - [ 1.17381901e-01, 3.59368610e+00, 8.53055286e+00, 3.94304059e-02,
          4.03486520e-01 ]
      - [ 7.42486060e-01, 8.57734203e-01, 9.03014317e-02, 1.40731335e-01,
          8.57021272e-01 ]
      - [ 6.59270942e-01, 1.05681777e+00, 2.96023816e-01, 8.70348334e-01,
          8.03802788e-01 ]
      - [ 7.25410998e-01, 1.00224805e+00, 2.30442548e+00, 5.09485342e-02,
          8.63007903e-01 ]
      - [ 3.84310544e-01, 1.96462774e+00, 1.68593359e+00, 2.50420459e-02,
          5.99248052e-01 ]
      - [ 9.00373876e-01, 4.22977984e-01, 2.59487939e+00, 1.21496104e-01,
          9.56703603e-01 ]
      - [ 4.30963159e-01, 2.03107643e+00, 1.11717486e+00, 4.18353043e-02,
          6.57989442e-01 ]
      - [ 9.53393877e-01, 2.04646260e-01, 1.11345983e+00, 2.88145751e-01,
          9.80891645e-01 ]
      - [ 9.22368288e-01, 3.42817456e-01, 8.94014418e-01, 2.26246804e-01,
          9.65532541e-01 ]
      - [ 9.65769589e-01, 1.37491137e-01, 6.46054685e-01, 2.93588698e-01,
          9.84490693e-01 ]
      - [ 9.88956749e-01, 4.48801257e-02, 1.54682755e-01, 3.16097426e+00,
          9.96495187e-01 ]
      - [ 3.37853163e-01, 2.62758470e+00, 3.11190176e+00, 3.44824530e-02,
          5.94929457e-01 ]
      - [ 1.11446120e-01, 3.06183624e+00, 2.57570982e+00, 2.67998371e-02,
          2.68326223e-01 ]
      - [ 9.44011331e-01, 2.19741017e-01, 1.67903948e+00, 2.67148405e-01,
          9.78559494e-01 ]
      - [ 4.63756889e-01, 1.87365639e+00, 3.56183600e+00, 1.40236825e-01,
          7.12988496e-01 ]
      - [ 7.26549327e-01, 1.13859975e+00, 2.31170774e+00, 8.86895582e-02,
          8.64471853e-01 ]
      - [ 9.94624555e-01, 2.87078824e-02, 1.23737581e-01, 2.68471456e+00,
          9.98440325e-01 ]
      - [ 3.66750062e-01, 1.91584742e+00, 1.72367737e-01, 4.15809005e-02,
          5.93647778e-01 ]
      - [ 8.79101694e-01, 4.91308510e-01, 5.99792182e-01, 6.00689888e-01,
          9.45374072e-01 ]
      - [ 9.73043859e-01, 9.45787877e-02, 1.58327234e+00, 2.94293553e-01,
          9.86935198e-01 ]
      - [ 2.35014811e-01, 3.07865477e+00, 8.51761341e+00, 2.81707104e-02,
          5.16315103e-01 ]
      - [ 4.15048778e-01, 1.81771803e+00, 1.83299983e+00, 1.52514666e-01,
          6.74515665e-01 ]
      - [ 1., 0., 0., 0., 1. ]
      - [ 8.55693102e-01, 5.71023464e-01, 3.02951193e+00, 1.00225374e-01,
          9.41013217e-01 ]
      - [ 9.91831005e-01, 3.85993868e-02, 1.54723957e-01, 1.65568006e+00,
          9.97789800e-01 ]
      - [ 9.97501850e-01, 1.50769074e-02, 4.34962437e-02, 5.33151913e+00,
          9.98915970e-01 ]
      - [ 6.14325523e-01, 1.40624976e+00, 1.90393627e+00, 4.08042222e-02,
          7.92829216e-01 ]
      - [ 9.11345065e-01, 3.94444883e-01, 5.79168975e-01, 2.16221377e-01,
          9.58859205e-01 ]
      - [ 8.32732677e-01, 4.81569916e-01, 1.91900864e-01, 2.43076980e-01,
          9.13091540e-01 ]
      - [ 1.08420096e-01, 3.26020145e+00, 3.29265237e+00, 2.70464811e-02,
          2.48129025e-01 ]
      - [ 8.80672574e-01, 4.53626513e-01, 2.28160411e-01, 1.38631389e-01,
          9.40044284e-01 ]
      - [ 9.10829127e-01, 2.83319354e-01, 4.34761643e-02, 7.31939459e+00,
          9.32478726e-01 ]
      - [ 7.06177413e-01, 1.09438026e+00, 2.72994661e+00, 1.05409302e-01,
          8.59132349e-01 ]
      - [ 4.14691418e-01, 1.98191488e+00, 9.73784447e-01, 3.41895968e-02,
          6.31699026e-01 ]
      - [ 4.45484042e-01, 1.93960881e+00, 5.31679440e+00, 2.79159471e-02,
          6.88975573e-01 ]
      - [ 1., 0., 0., 0., 1. ]
      - [ 3.04123104e-01, 2.14951801e+00, 5.12503326e-01, 8.73949304e-02,
          5.43388188e-01 ]
      - [ 9.78392124e-01, 7.31995925e-02, 9.49300647e-01, 3.89683247e-01,
          9.91294980e-01 ]
      - [ 5.82702994e-01, 1.54047477e+00, 9.33608115e-01, 1.01661943e-01,
          7.64362514e-01 ]
      - [ 3.99065763e-01, 1.39748108e+00, 3.53344679e+00, 1.79111771e-02,
          4.75481242e-01 ]
      - [ 3.82904768e-01, 1.47229731e+00, 5.07102430e-01, 2.51858681e-02,
          5.87871313e-01 ]
      - [ 9.85199988e-01, 7.66053274e-02, 1.72465801e-01, 2.44144821e+00,
          9.94074225e-01 ]
      - [ 3.00875127e-01, 2.28071308e+00, 3.12982035e+00, 1.06899440e-01,
          5.77480853e-01 ]
      - [ 2.46513337e-01, 2.69095898e+00, 1.76097906e+00, 3.63394544e-02,
          4.94886786e-01 ]
      - [ 7.19366312e-01, 1.04050875e+00, 2.19906569e+00, 5.80717474e-02,
          8.61225605e-01 ]
      - [ 7.35118091e-01, 9.93277073e-01, 7.36203671e-01, 1.72717378e-01,
          8.63219738e-01 ]
      - [ 9.74529922e-01, 1.04931600e-01, 2.13927031e-01, 1.96694779e+00,
          9.89016950e-01 ]
      - [ 9.20039356e-01, 3.17737460e-01, 7.66949430e-02, 5.13988018e-01,
          9.58280146e-01 ]
      - [ 1., 0., 0., 0., 1. ]
      - [ 6.01387262e-01, 1.37501657e+00, 1.25399089e+00, 1.73250094e-01,
          7.91486561e-01 ]
      - [ 9.37667847e-01, 2.44077489e-01, 1.28015980e-01, 1.31208396e+00,
          9.73034203e-01 ]
      - [ 8.40966821e-01, 5.44920087e-01, 1.24526553e-01, 1.50911069e+00,
          9.14909065e-01 ]
      - [ 9.78909016e-01, 9.69328135e-02, 7.10509047e-02, 3.73958635e+00,
          9.90177035e-01 ]
      - [ 3.71366322e-01, 1.82540894e+00, 1.10478554e+01, 1.86597966e-02,
          5.86046994e-01 ]
      - [ 9.12727535e-01, 3.64519835e-01, 4.21470284e-01, 5.60551763e-01,
          9.60922003e-01 ]
      - [ 8.73307824e-01, 4.94173735e-01, 4.57969457e-01, 2.76856571e-01,
          9.43846643e-01 ]
      - [ 1.49023071e-01, 3.40915227e+00, 2.98333025e+00, 2.93294825e-02,
          3.75278294e-01 ]
      - [ 9.01258051e-01, 3.69941235e-01, 4.24031734e-01, 1.39855787e-01,
          9.51343000e-01 ]
      - [ 8.01847339e-01, 8.18396807e-01, 8.91776383e-01, 1.15384340e-01,
          9.00633514e-01 ]
      - [ 6.60422564e-01, 1.34470153e+00, 2.98133564e+00, 1.38446629e-01,
          8.45093310e-01 ]
      - [ 9.88162398e-01, 5.72157614e-02, 5.95079422e-01, 8.07743430e-01,
          9.95730162e-01 ]
      - [ 9.76787567e-01, 1.16606690e-01, 1.40351176e-01, 1.75223339e+00,
          9.90082026e-01 ]
      - [ 7.73729146e-01, 9.43874538e-01, 1.62549806e+00, 1.06143534e-01,
          8.87355864e-01 ]
      - [ 7.75071383e-01, 8.96674335e-01, 1.17388749e+00, 8.64566788e-02,
          8.89971793e-01 ]
      - [ 9.34711516e-01, 3.01814646e-01, 8.97595823e-01, 3.43580842e-01,
          9.70409274e-01 ]
      - [ 9.57020402e-01, 2.02756137e-01, 1.35804713e+00, 3.33331883e-01,
          9.82590556e-01 ]
      - [ 9.94499981e-01, 3.03736888e-02, 1.71420291e-01, 2.79287291e+00,
          9.98124063e-01 ]
      - [ 9.99733031e-01, 1.53073948e-03, 1.73804394e-04, 2.80891797e+03,
          9.99846160e-01 ]
      - [ 2.84701496e-01, 2.88100481e+00, 5.97444296e+00, 2.73572020e-02,
          5.63489497e-01 ]
      - [ 5.23254097e-01, 1.75884116e+00, 1.07955980e+00, 8.04940984e-02,
          7.31893003e-01 ]
      - [ 9.83686984e-01, 8.20430145e-02, 2.13453397e-01, 1.27057481e+00,
          9.92890179e-01 ]
      - [ 8.35999668e-01, 7.11782098e-01, 1.63846195e+00, 1.50581256e-01,
          9.24511611e-01 ]
      - [ 9.56673861e-01, 2.08652094e-01, 3.05893809e-01, 6.63328052e-01,
          9.81086195e-01 ]
      - [ 9.40774679e-01, 2.74635047e-01, 7.43342757e-01, 3.76573652e-01,
          9.75534737e-01 ]
      - [ 8.94774139e-01, 4.60726708e-01, 8.84734511e-01, 1.60502747e-01,
          9.49776411e-01 ]
      - [ 9.35712755e-01, 2.53191411e-01, 1.28989255e+00, 1.66538894e-01,
          9.71205235e-01 ]
      - [ 5.86001396e-01, 1.21450198e+00, 3.42808515e-01, 4.31863666e-02,
          7.61874974e-01 ]
      - [ 5.17533720e-01, 1.85691833e+00, 5.14400196e+00, 4.99944314e-02,
          7.46012807e-01 ]
      - [ 5.71219504e-01, 1.62602532e+00, 1.19913709e+00, 1.20483704e-01,
          7.70597398e-01 ]
      - [ 8.17021251e-01, 6.26123190e-01, 3.21322918e-01, 3.36101055e-01,
          9.06754076e-01 ]
      - [ 6.60422564e-01, 1.34470153e+00, 2.98133564e+00, 1.38446629e-01,
          8.45093310e-01 ]
      - [ 7.30488002e-01, 9.28708076e-01, 9.67485309e-01, 7.98649862e-02,
          8.58501375e-01 ]
      - [ 5.91269970e-01, 6.59846425e-01, 2.02221468e-01, 2.21223719e-02,
          7.19066679e-01 ]
      - [ 9.84395444e-01, 8.00689608e-02, 3.87175947e-01, 1.27135599e+00,
          9.94465947e-01 ]
      - [ 9.70997095e-01, 1.19282238e-01, 2.82640547e-01, 3.80674481e-01,
          9.86398101e-01 ]
      - [ 9.30357814e-01, 3.19896668e-01, 1.08195782e+00, 3.64517301e-01,
          9.72257853e-01 ]
      - [ 2.84340113e-01, 2.26364946e+00, 1.47292185e+00, 2.33454406e-02,
          4.94953573e-01 ]
      - [ 8.83721948e-01, 4.56285149e-01, 3.86013269e-01, 3.08502287e-01,
          9.47844386e-01 ]
      - [ 3.04438472e-01, 2.68185472e+00, 3.49336433e+00, 2.70297527e-02,
          5.58859825e-01 ]
      - [ 4.17984635e-01, 2.14724326e+00, 2.46139312e+00, 3.07002272e-02,
          6.52274847e-01 ]
      - [ 6.17920697e-01, 1.36137354e+00, 1.92356098e+00, 1.43937364e-01,
          8.01002860e-01 ]
      - [ 9.97832716e-01, 1.26557499e-02, 9.74216238e-02, 4.39368820e+00,
          9.99322236e-01 ]
      - [ 9.82501864e-01, 8.71995464e-02, 5.34949958e-01, 9.31092620e-01,
          9.94166672e-01 ]
      - [ 9.02589440e-01, 3.88324350e-01, 1.99156374e-01, 4.90462542e-01,
          9.52656746e-01 ]
      - [ 5.64483106e-01, 1.62774730e+00, 4.68988132e+00, 3.39911766e-02,
          7.68866658e-01 ]
      - [ 3.08958173e-01, 2.90930748e+00, 1.00542841e+01, 3.11851725e-02,
          5.98018110e-01 ]
      - [ 9.92535830e-01, 4.03244644e-02, 2.15999842e-01, 2.08407998e+00,
          9.97074485e-01 ]
      - [ 8.41803193e-01, 6.45246089e-01, 2.78637362e+00, 8.88854116e-02,
          9.28289294e-01 ]
      - [ 1., 0., 0., 0., 1. ]
      - [ 9.89524066e-01, 4.62057702e-02, 7.26151109e-01, 6.87450409e-01,
          9.96472776e-01 ]
      - [ 8.52874339e-01, 6.19370639e-01, 1.27103746e+00, 1.96424246e-01,
          9.31711793e-01 ]
      - [ 7.54365027e-01, 1.02335775e+00, 2.33387566e+00, 1.09880254e-01,
          8.79231691e-01 ]
      - [ 4.65478301e-01, 1.97274709e+00, 1.82223821e+00, 1.22052588e-01,
          6.86676562e-01 ]
      - [ 9.84792590e-01, 6.92564622e-02, 3.50393690e-02, 8.08638453e-01,
          9.92581308e-01 ]
      - [ 1., 0., 0., 0., 1. ]
      - [ 7.72555530e-01, 9.45259511e-01, 3.85008025e+00, 8.00005570e-02,
          8.91540229e-01 ]
      - [ 7.97321737e-01, 8.46791148e-01, 2.45650625e+00, 8.34472552e-02,
          9.02542114e-01 ]
      - [ 9.43837643e-01, 2.43233547e-01, 8.47579002e-01, 2.58171260e-01,
          9.74673390e-01 ]
      - [ 9.54416037e-01, 2.13824987e-01, 7.25787163e-01, 6.86533630e-01,
          9.82472956e-01 ]
      - [ 2.17014611e-01, 2.23997641e+00, 6.31901562e-01, 4.21400480e-02,
          3.84785175e-01 ]
      - [ 8.32307696e-01, 6.04626715e-01, 3.64672124e-01, 9.81032431e-01,
          9.13963974e-01 ]
      - [ 8.86516094e-01, 2.71410912e-01, 1.32446146e+00, 7.88545907e-02,
          9.43462968e-01 ]
      - [ 9.39098477e-01, 2.57295281e-01, 8.27713072e-01, 2.24036559e-01,
          9.73209977e-01 ]
      - [ 6.99160278e-01, 9.63522613e-01, 4.82360184e-01, 1.07466355e-01,
          8.37252200e-01 ]
      - [ 9.21724737e-01, 3.39418650e-01, 1.01310587e+00, 2.02403799e-01,
          9.64061916e-01 ]
      - [ 9.95833278e-01, 2.11855210e-02, 1.07720951e-02, 4.14878731e+01,
          9.98344421e-01 ]
      - [ 9.48273242e-01, 1.94080636e-01, 5.01671314e-01, 2.04751745e-01,
          9.75513756e-01 ]
      - [ 3.41144770e-01, 2.37227869e+00, 1.13267410e+00, 7.49613643e-02,
          5.82174897e-01 ]
      - [ 9.99443412e-01, 2.95018358e-03, 5.89254370e-04, 1.02364136e+02,
          9.99610782e-01 ]
      - [ 8.53372633e-01, 5.86098909e-01, 8.19871902e-01, 3.84810388e-01,
          9.27701890e-01 ]
      - [ 2.85606503e-01, 2.37389016e+00, 3.44230533e+00, 2.15749107e-02,
          5.04867673e-01 ]
      - [ 4.85445678e-01, 1.67753518e+00, 7.80030549e-01, 6.88555464e-02,
          6.98905766e-01 ]
      - [ 8.54932606e-01, 5.86353004e-01, 1.62637949e+00, 1.24118216e-01,
          9.34944093e-01 ]
      - [ 9.13761020e-01, 3.94938886e-01, 1.68150961e+00, 2.28926063e-01,
          9.64350879e-01 ]
      - [ 1., 0., 0., 0., 1. ]
      - [ 8.39469731e-01, 6.75230920e-01, 8.23992789e-01, 3.30410868e-01,
          9.20996904e-01 ]
      - [ 4.40711796e-01, 2.15902114e+00, 3.22199249e+00, 4.89919409e-02,
          6.80229425e-01 ]
   decision_functions:
      -
         sv_count: 159
         rho: -2.9871373196328482e-01
         alpha: [ 3.0200000000000000e+00, 6.9577492087433690e-01,
             1.7956813924732158e+00, 2.1436784071935535e+00,
             1.4795456468147459e+00, 9.0412319412284248e-01,
             3.0200000000000000e+00, 3.0200000000000000e+00,
             1.7896215603429169e+00, 3.0200000000000000e+00,
             1.0906240394665806e-01, 6.9005775983151230e-01,
             3.0200000000000000e+00, 6.9901470238399710e-01,
             7.0100396442897228e-01, 3.0200000000000000e+00,
             7.0157478066127577e-01, 5.3729558187718585e-01,
             2.4110684007201959e+00, 3.0200000000000000e+00,
             2.4168830325212601e-01, 9.6293652723886491e-01,
             1.4927975128821585e+00, 3.1416253170007025e-01,
             7.0128146944321301e-01, 6.9878968772846384e-01,
             1.5651010446051306e+00, 3.0200000000000000e+00,
             7.5379184994985415e-01, 3.0200000000000000e+00,
             2.6044797589836013e+00, 9.3902710873927031e-01,
             6.4554724788364048e-01, 1.3396659795423009e+00,
             7.2447539424631957e-01, 3.0200000000000000e+00,
             5.8318094316687019e-01, 2.0584910577004192e+00,
             1.3087004064165129e+00, 3.0200000000000000e+00,
             3.0200000000000000e+00, 3.0200000000000000e+00,
             1.1845224828717895e+00, 6.5218445038842332e-01,
             8.2891794941440322e-01, 3.0200000000000000e+00,
             1.0406893827076118e+00, 2.6157674414271564e-01,
             2.9599081859525906e+00, 6.9431455882482174e-02,
             3.0200000000000000e+00, 1.1060793224353318e+00,
             6.4514865657850018e-01, 2.4039892349262901e+00,
             3.0200000000000000e+00, 2.0908018736697285e+00,
             2.8528742904382427e+00, 6.9133124473105823e-01,
             3.0200000000000000e+00, 3.0200000000000000e+00,
             3.0200000000000000e+00, 1.2738642291717486e+00,
             2.3717896505946294e+00, 7.0103499310644424e-01,
             2.7171411634926281e+00, 9.3464122340712397e-01,
             2.7747750518678429e+00, 3.0200000000000000e+00,
             1.8707717936864674e+00, 8.1583139443511576e-01,
             3.0200000000000000e+00, 5.1255427982577551e-01,
             9.3923203549083700e-01, 6.0627116660360736e-01,
             2.8685910155661278e+00, 6.5430920685679095e-01,
             1.1106390291431942e+00, 1.8628654289062976e+00,
             3.0200000000000000e+00, 2.9132387934463027e+00,
             3.0200000000000000e+00, 1.0237148499257922e+00,
             3.0104625703985834e+00, 1.7838567390230473e-01,
             6.7085477485066969e-01, 7.0150959583216244e-01,
             -6.1383867654609059e-01, -1.1293503812040874e-02,
             -1.7752869325936806e+00, -3.0200000000000000e+00,
             -2.4956225679056350e+00, -3.0200000000000000e+00,
             -2.8720583003139923e+00, -3.0200000000000000e+00,
             -2.1794773468156903e+00, -2.1417439528407192e+00,
             -4.8635746871580544e-02, -3.0200000000000000e+00,
             -3.0200000000000000e+00, -1.2986753018606345e+00,
             -1.4720232404293108e+00, -1.7141176299048626e+00,
             -3.0200000000000000e+00, -3.0200000000000000e+00,
             -6.1818988961297272e-01, -1.5929524471007479e+00,
             -9.7798685021538445e-01, -2.5010635489560007e-02,
             -3.0200000000000000e+00, -3.0200000000000000e+00,
             -2.2513174512483114e+00, -3.0200000000000000e+00,
             -6.8865090483557756e-01, -3.0200000000000000e+00,
             -1.9125326044712201e+00, -3.7616169773759689e-01,
             -3.0200000000000000e+00, -4.0335241803669403e-01,
             -3.0200000000000000e+00, -1.6756234114287536e+00,
             -1.0797714704556771e+00, -2.0664071395806514e+00,
             -3.0200000000000000e+00, -1.3164015493053070e+00,
             -8.6955219250202553e-02, -3.0200000000000000e+00,
             -1.0001128112431217e+00, -1.2989234507966256e+00,
             -3.0200000000000000e+00, -3.0200000000000000e+00,
             -3.0200000000000000e+00, -3.0200000000000000e+00,
             -1.5912614716681421e+00, -3.0200000000000000e+00,
             -3.0200000000000000e+00, -1.4817267344582021e+00,
             -3.0200000000000000e+00, -1.3032595181693680e+00,
             -2.0469264760044621e+00, -3.0200000000000000e+00,
             -1.9376694273632058e+00, -2.5838234148139261e+00,
             -1.6677934857585814e+00, -8.4806853790074077e-01,
             -3.0200000000000000e+00, -3.0200000000000000e+00,
             -2.8865555048411742e+00, -1.2989697438901677e+00,
             -1.1248515607140575e+00, -1.8364524635587713e+00,
             -1.2986659199102619e+00, -4.5021163783802454e-01,
             -1.2354000688664457e+00, -3.0200000000000000e+00,
             -1.9212286045825172e-01, -3.0200000000000000e+00,
             -3.0200000000000000e+00, -3.0200000000000000e+00,
             -2.9946707568834157e+00 ]
         index: [ 0, 1, 2, 3, 4, 5, 6, 7, 8, 9, 10, 11, 12, 13, 14, 15,
             16, 17, 18, 19, 20, 21, 22, 23, 24, 25, 26, 27, 28, 29, 30,
             31, 32, 33, 34, 35, 36, 37, 38, 39, 40, 41, 42, 43, 44, 45,
             46, 47, 48, 49, 50, 51, 52, 53, 54, 55, 56, 57, 58, 59, 60,
             61, 62, 63, 64, 65, 66, 67, 68, 69, 70, 71, 72, 73, 74, 75,
             76, 77, 78, 79, 80, 81, 82, 83, 84, 85, 86, 87, 88, 89, 90,
             91, 92, 93, 94, 95, 96, 97, 98, 99, 100, 101, 102, 103, 104,
             105, 106, 107, 108, 109, 110, 111, 112, 113, 114, 115, 116,
             117, 118, 119, 120, 121, 122, 123, 124, 125, 126, 127, 128,
             129, 130, 131, 132, 133, 134, 135, 136, 137, 138, 139, 140,
             141, 142, 143, 144, 145, 146, 147, 148, 149, 150, 151, 152,
             153, 154, 155, 156, 157, 158 ]
